digraph Tree {
node [shape=box, style="filled, rounded", color="black", fontname=helvetica] ;
edge [fontname=helvetica] ;
0 [label="petal width (cm) <= 0.8\ngini = 0.66\nsamples = 93\nvalue = [41, 56, 53]\nclass = versicolor", fillcolor="#f9fefb"] ;
1 [label="gini = 0.0\nsamples = 27\nvalue = [41, 0, 0]\nclass = setosa", fillcolor="#e58139"] ;
0 -> 1 [labeldistance=2.5, labelangle=45, headlabel="True"] ;
2 [label="petal length (cm) <= 4.75\ngini = 0.5\nsamples = 66\nvalue = [0, 56, 53]\nclass = versicolor", fillcolor="#f4fef8"] ;
0 -> 2 [labeldistance=2.5, labelangle=-45, headlabel="False"] ;
3 [label="gini = 0.0\nsamples = 30\nvalue = [0, 51, 0]\nclass = versicolor", fillcolor="#39e581"] ;
2 -> 3 ;
4 [label="petal length (cm) <= 5.05\ngini = 0.16\nsamples = 36\nvalue = [0, 5, 53]\nclass = virginica", fillcolor="#8d4ce7"] ;
2 -> 4 ;
5 [label="sepal length (cm) <= 6.45\ngini = 0.5\nsamples = 6\nvalue = [0, 5, 5]\nclass = versicolor", fillcolor="#ffffff"] ;
4 -> 5 ;
6 [label="petal width (cm) <= 1.9\ngini = 0.28\nsamples = 4\nvalue = [0, 1, 5]\nclass = virginica", fillcolor="#9a61ea"] ;
5 -> 6 ;
7 [label="sepal width (cm) <= 3.0\ngini = 0.44\nsamples = 2\nvalue = [0, 1, 2]\nclass = virginica", fillcolor="#c09cf2"] ;
6 -> 7 ;
8 [label="gini = 0.0\nsamples = 1\nvalue = [0, 0, 2]\nclass = virginica", fillcolor="#8139e5"] ;
7 -> 8 ;
9 [label="gini = 0.0\nsamples = 1\nvalue = [0, 1, 0]\nclass = versicolor", fillcolor="#39e581"] ;
7 -> 9 ;
10 [label="gini = 0.0\nsamples = 2\nvalue = [0, 0, 3]\nclass = virginica", fillcolor="#8139e5"] ;
6 -> 10 ;
11 [label="gini = 0.0\nsamples = 2\nvalue = [0, 4, 0]\nclass = versicolor", fillcolor="#39e581"] ;
5 -> 11 ;
12 [label="gini = 0.0\nsamples = 30\nvalue = [0, 0, 48]\nclass = virginica", fillcolor="#8139e5"] ;
4 -> 12 ;
}